<?xml version="1.0"?>
<opencv_storage>
<cascade>
  <stageType>BOOST</stageType>
  <featureType>HAAR</featureType>
  <height>24</height>
  <width>24</width>
  <stageParams>
    <boostType>GAB</boostType>
    <minHitRate>9.9500000476837158e-01</minHitRate>
    <maxFalseAlarm>5.0000000000000000e-01</maxFalseAlarm>
    <weightTrimRate>9.4999998807907104e-01</weightTrimRate>
    <maxDepth>1</maxDepth>
    <maxWeakCount>100</maxWeakCount></stageParams>
  <featureParams>
    <maxCatCount>0</maxCatCount>
    <featSize>1</featSize>
    <mode>BASIC</mode></featureParams>
  <stageNum>15</stageNum>
  <stages>
    <!-- stage 0 -->
    <_>
      <maxWeakCount>2</maxWeakCount>
      <stageThreshold>-1.3335198163986206e-01</stageThreshold>
      <weakClassifiers>
        <_>
          <internalNodes>
            0 -1 6 -2.2924160957336426e-01</internalNodes>
          <leafValues>
            8.2352942228317261e-01 -9.8989897966384888e-01</leafValues></_>
        <_>
          <internalNodes>
            0 -1 25 -1.2887060642242432e-01</internalNodes>
          <leafValues>
            9.5016014575958252e-01 -9.5688140392303467e-01</leafValues></_></weakClassifiers></_>
    <!-- stage 1 -->
    <_>
      <maxWeakCount>2</maxWeakCount>
      <stageThreshold>-3.9146772027015686e-01</stageThreshold>
      <weakClassifiers>
        <_>
          <internalNodes>
            0 -1 10 2.9002647846937180e-02</internalNodes>
          <leafValues>
            -9.8979592323303223e-01 7.2222220897674561e-01</leafValues></_>
        <_>
          <internalNodes>
            0 -1 14 3.2141613774001598e-03</internalNodes>
          <leafValues>
            -1. 5.9832823276519775e-01</leafValues></_></weakClassifiers></_>
    <!-- stage 2 -->
    <_>
      <maxWeakCount>2</maxWeakCount>
      <stageThreshold>-4.1727209091186523e-01</stageThreshold>
      <weakClassifiers>
        <_>
          <internalNodes>
            0 -1 8 -1.6218515112996101e-02</internalNodes>
          <leafValues>
            5.8333331346511841e-01 -8.7500000000000000e-01</leafValues></_>
        <_>
          <internalNodes>
            0 -1 1 -2.8409244492650032e-02</internalNodes>
          <leafValues>
            4.5772790908813477e-01 -9.4259303808212280e-01</leafValues></_></weakClassifiers></_>
    <!-- stage 3 -->
    <_>
      <maxWeakCount>2</maxWeakCount>
      <stageThreshold>-9.5872038602828979e-01</stageThreshold>
      <weakClassifiers>
        <_>
          <internalNodes>
            0 -1 26 2.0536384545266628e-03</internalNodes>
          <leafValues>
            -9.5209580659866333e-01 -1.3846154510974884e-01</leafValues></_>
        <_>
          <internalNodes>
            0 -1 13 -3.5214263200759888e-01</internalNodes>
          <leafValues>
            4.3118011951446533e-01 -8.2025885581970215e-01</leafValues></_></weakClassifiers></_>
    <!-- stage 4 -->
    <_>
      <maxWeakCount>3</maxWeakCount>
      <stageThreshold>-9.2372781038284302e-01</stageThreshold>
      <weakClassifiers>
        <_>
          <internalNodes>
            0 -1 32 6.0886829160153866e-03</internalNodes>
          <leafValues>
            -8.0995476245880127e-01 1.</leafValues></_>
        <_>
          <internalNodes>
            0 -1 15 8.3078036550432444e-04</internalNodes>
          <leafValues>
            -6.5514135360717773e-01 8.3259916305541992e-01</leafValues></_>
        <_>
          <internalNodes>
            0 -1 30 -1.0429332032799721e-03</internalNodes>
          <leafValues>
            5.5075520277023315e-01 -9.4637227058410645e-01</leafValues></_></weakClassifiers></_>
    <!-- stage 5 -->
    <_>
      <maxWeakCount>2</maxWeakCount>
      <stageThreshold>-6.1651951074600220e-01</stageThreshold>
      <weakClassifiers>
        <_>
          <internalNodes>
            0 -1 11 -2.2033397108316422e-02</internalNodes>
          <leafValues>
            4.7368422150611877e-01 -8.3098590373992920e-01</leafValues></_>
        <_>
          <internalNodes>
            0 -1 19 4.2521173600107431e-04</internalNodes>
          <leafValues>
            -9.7979390621185303e-01 2.1446643769741058e-01</leafValues></_></weakClassifiers></_>
    <!-- stage 6 -->
    <_>
      <maxWeakCount>3</maxWeakCount>
      <stageThreshold>-1.2759027481079102e+00</stageThreshold>
      <weakClassifiers>
        <_>
          <internalNodes>
            0 -1 21 -7.0557154715061188e-02</internalNodes>
          <leafValues>
            1. -8.0180180072784424e-01</leafValues></_>
        <_>
          <internalNodes>
            0 -1 16 1.0113721713423729e-02</internalNodes>
          <leafValues>
            -8.2342672348022461e-01 3.4495028853416443e-01</leafValues></_>
        <_>
          <internalNodes>
            0 -1 2 -1.8717053532600403e-01</internalNodes>
          <leafValues>
            4.0565925836563110e-01 -8.1905126571655273e-01</leafValues></_></weakClassifiers></_>
    <!-- stage 7 -->
    <_>
      <maxWeakCount>2</maxWeakCount>
      <stageThreshold>-6.8221449851989746e-01</stageThreshold>
      <weakClassifiers>
        <_>
          <internalNodes>
            0 -1 9 2.0495481789112091e-02</internalNodes>
          <leafValues>
            -8.0090498924255371e-01 8.1818181276321411e-01</leafValues></_>
        <_>
          <internalNodes>
            0 -1 17 5.7215092238038778e-04</internalNodes>
          <leafValues>
            1.1869044601917267e-01 -1.</leafValues></_></weakClassifiers></_>
    <!-- stage 8 -->
    <_>
      <maxWeakCount>2</maxWeakCount>
      <stageThreshold>-6.7389261722564697e-01</stageThreshold>
      <weakClassifiers>
        <_>
          <internalNodes>
            0 -1 5 4.9308259040117264e-03</internalNodes>
          <leafValues>
            -8.2075470685958862e-01 3.0000001192092896e-01</leafValues></_>
        <_>
          <internalNodes>
            0 -1 22 -2.9061111854389310e-04</internalNodes>
          <leafValues>
            1.5131221711635590e-01 -9.7389262914657593e-01</leafValues></_></weakClassifiers></_>
    <!-- stage 9 -->
    <_>
      <maxWeakCount>2</maxWeakCount>
      <stageThreshold>-6.7569178342819214e-01</stageThreshold>
      <weakClassifiers>
        <_>
          <internalNodes>
            0 -1 28 6.8180941045284271e-02</internalNodes>
          <leafValues>
            -7.9908674955368042e-01 5.3846156597137451e-01</leafValues></_>
        <_>
          <internalNodes>
            0 -1 18 -1.6114197205752134e-04</internalNodes>
          <leafValues>
            1.2339498847723007e-01 -1.</leafValues></_></weakClassifiers></_>
    <!-- stage 10 -->
    <_>
      <maxWeakCount>2</maxWeakCount>
      <stageThreshold>-6.2188321352005005e-01</stageThreshold>
      <weakClassifiers>
        <_>
          <internalNodes>
            0 -1 7 -1.9544078037142754e-02</internalNodes>
          <leafValues>
            1. -7.8571426868438721e-01</leafValues></_>
        <_>
          <internalNodes>
            0 -1 23 -7.7223626431077719e-04</internalNodes>
          <leafValues>
            -1. 1.6383105516433716e-01</leafValues></_></weakClassifiers></_>
    <!-- stage 11 -->
    <_>
      <maxWeakCount>3</maxWeakCount>
      <stageThreshold>-9.6109312772750854e-01</stageThreshold>
      <weakClassifiers>
        <_>
          <internalNodes>
            0 -1 29 -8.1288274377584457e-03</internalNodes>
          <leafValues>
            5.7142859697341919e-01 -8.0733942985534668e-01</leafValues></_>
        <_>
          <internalNodes>
            0 -1 20 2.3719735909253359e-03</internalNodes>
          <leafValues>
            -6.8776869773864746e-01 4.6105575561523438e-01</leafValues></_>
        <_>
          <internalNodes>
            0 -1 33 5.0991878379136324e-04</internalNodes>
          <leafValues>
            -6.1480939388275146e-01 6.1880844831466675e-01</leafValues></_></weakClassifiers></_>
    <!-- stage 12 -->
    <_>
      <maxWeakCount>2</maxWeakCount>
      <stageThreshold>-6.6081494092941284e-01</stageThreshold>
      <weakClassifiers>
        <_>
          <internalNodes>
            0 -1 3 -4.2397999763488770e-01</internalNodes>
          <leafValues>
            5.7142859697341919e-01 -8.0733942985534668e-01</leafValues></_>
        <_>
          <internalNodes>
            0 -1 27 -9.8560143669601530e-05</internalNodes>
          <leafValues>
            1.4652450382709503e-01 -1.</leafValues></_></weakClassifiers></_>
    <!-- stage 13 -->
    <_>
      <maxWeakCount>2</maxWeakCount>
      <stageThreshold>-6.0888832807540894e-01</stageThreshold>
      <weakClassifiers>
        <_>
          <internalNodes>
            0 -1 12 1.1976878158748150e-03</internalNodes>
          <leafValues>
            -8.2857143878936768e-01 2.7272728085517883e-01</leafValues></_>
        <_>
          <internalNodes>
            0 -1 24 -1.3257769751362503e-04</internalNodes>
          <leafValues>
            2.1968311071395874e-01 -1.</leafValues></_></weakClassifiers></_>
    <!-- stage 14 -->
    <_>
      <maxWeakCount>5</maxWeakCount>
      <stageThreshold>-1.2070409059524536e+00</stageThreshold>
      <weakClassifiers>
        <_>
          <internalNodes>
            0 -1 35 1.2883223826065660e-03</internalNodes>
          <leafValues>
            -8.1566822528839111e-01 6.0000002384185791e-01</leafValues></_>
        <_>
          <internalNodes>
            0 -1 4 -3.2613950315862894e-03</internalNodes>
          <leafValues>
            5.4765957593917847e-01 -6.3496875762939453e-01</leafValues></_>
        <_>
          <internalNodes>
            0 -1 31 8.4407575195655227e-04</internalNodes>
          <leafValues>
            3.2609117031097412e-01 -1.</leafValues></_>
        <_>
          <internalNodes>
            0 -1 34 1.1872048489749432e-03</internalNodes>
          <leafValues>
            -5.4900985956192017e-01 7.5940680503845215e-01</leafValues></_>
        <_>
          <internalNodes>
            0 -1 0 -1.2561621144413948e-02</internalNodes>
          <leafValues>
            4.6651467680931091e-01 -9.1069710254669189e-01</leafValues></_></weakClassifiers></_></stages>
  <features>
    <_>
      <rects>
        <_>
          0 7 12 7 -1.</_>
        <_>
          4 7 4 7 3.</_></rects>
      <tilted>0</tilted></_>
    <_>
      <rects>
        <_>
          0 14 8 9 -1.</_>
        <_>
          4 14 4 9 2.</_></rects>
      <tilted>0</tilted></_>
    <_>
      <rects>
        <_>
          1 5 17 12 -1.</_>
        <_>
          1 11 17 6 2.</_></rects>
      <tilted>0</tilted></_>
    <_>
      <rects>
        <_>
          2 3 14 18 -1.</_>
        <_>
          2 12 14 9 2.</_></rects>
      <tilted>0</tilted></_>
    <_>
      <rects>
        <_>
          2 16 2 3 -1.</_>
        <_>
          3 16 1 3 2.</_></rects>
      <tilted>0</tilted></_>
    <_>
      <rects>
        <_>
          2 21 6 2 -1.</_>
        <_>
          2 21 3 1 2.</_>
        <_>
          5 22 3 1 2.</_></rects>
      <tilted>0</tilted></_>
    <_>
      <rects>
        <_>
          3 0 10 22 -1.</_>
        <_>
          3 11 10 11 2.</_></rects>
      <tilted>0</tilted></_>
    <_>
      <rects>
        <_>
          3 15 4 6 -1.</_>
        <_>
          3 15 2 3 2.</_>
        <_>
          5 18 2 3 2.</_></rects>
      <tilted>0</tilted></_>
    <_>
      <rects>
        <_>
          3 16 8 6 -1.</_>
        <_>
          3 16 4 3 2.</_>
        <_>
          7 19 4 3 2.</_></rects>
      <tilted>0</tilted></_>
    <_>
      <rects>
        <_>
          3 20 13 2 -1.</_>
        <_>
          3 21 13 1 2.</_></rects>
      <tilted>0</tilted></_>
    <_>
      <rects>
        <_>
          4 3 18 3 -1.</_>
        <_>
          10 3 6 3 3.</_></rects>
      <tilted>0</tilted></_>
    <_>
      <rects>
        <_>
          4 14 2 9 -1.</_>
        <_>
          4 17 2 3 3.</_></rects>
      <tilted>0</tilted></_>
    <_>
      <rects>
        <_>
          5 1 2 2 -1.</_>
        <_>
          5 1 1 1 2.</_>
        <_>
          6 2 1 1 2.</_></rects>
      <tilted>0</tilted></_>
    <_>
      <rects>
        <_>
          5 3 12 20 -1.</_>
        <_>
          5 13 12 10 2.</_></rects>
      <tilted>0</tilted></_>
    <_>
      <rects>
        <_>
          5 6 10 1 -1.</_>
        <_>
          10 6 5 1 2.</_></rects>
      <tilted>0</tilted></_>
    <_>
      <rects>
        <_>
          6 0 2 2 -1.</_>
        <_>
          6 0 1 1 2.</_>
        <_>
          7 1 1 1 2.</_></rects>
      <tilted>0</tilted></_>
    <_>
      <rects>
        <_>
          6 0 8 6 -1.</_>
        <_>
          6 3 8 3 2.</_></rects>
      <tilted>0</tilted></_>
    <_>
      <rects>
        <_>
          6 10 6 1 -1.</_>
        <_>
          8 10 2 1 3.</_></rects>
      <tilted>0</tilted></_>
    <_>
      <rects>
        <_>
          6 12 2 2 -1.</_>
        <_>
          6 13 2 1 2.</_></rects>
      <tilted>0</tilted></_>
    <_>
      <rects>
        <_>
          7 9 2 4 -1.</_>
        <_>
          8 9 1 4 2.</_></rects>
      <tilted>0</tilted></_>
    <_>
      <rects>
        <_>
          7 15 6 6 -1.</_>
        <_>
          7 17 6 2 3.</_></rects>
      <tilted>0</tilted></_>
    <_>
      <rects>
        <_>
          7 17 13 6 -1.</_>
        <_>
          7 19 13 2 3.</_></rects>
      <tilted>0</tilted></_>
    <_>
      <rects>
        <_>
          8 6 2 2 -1.</_>
        <_>
          8 7 2 1 2.</_></rects>
      <tilted>0</tilted></_>
    <_>
      <rects>
        <_>
          8 12 1 6 -1.</_>
        <_>
          8 14 1 2 3.</_></rects>
      <tilted>0</tilted></_>
    <_>
      <rects>
        <_>
          8 13 1 2 -1.</_>
        <_>
          8 14 1 1 2.</_></rects>
      <tilted>0</tilted></_>
    <_>
      <rects>
        <_>
          9 4 5 18 -1.</_>
        <_>
          9 13 5 9 2.</_></rects>
      <tilted>0</tilted></_>
    <_>
      <rects>
        <_>
          9 9 6 2 -1.</_>
        <_>
          12 9 3 2 2.</_></rects>
      <tilted>0</tilted></_>
    <_>
      <rects>
        <_>
          9 10 1 2 -1.</_>
        <_>
          9 11 1 1 2.</_></rects>
      <tilted>0</tilted></_>
    <_>
      <rects>
        <_>
          9 13 14 8 -1.</_>
        <_>
          9 13 7 4 2.</_>
        <_>
          16 17 7 4 2.</_></rects>
      <tilted>0</tilted></_>
    <_>
      <rects>
        <_>
          10 18 4 3 -1.</_>
        <_>
          10 19 4 1 3.</_></rects>
      <tilted>0</tilted></_>
    <_>
      <rects>
        <_>
          11 15 5 2 -1.</_>
        <_>
          11 16 5 1 2.</_></rects>
      <tilted>0</tilted></_>
    <_>
      <rects>
        <_>
          12 6 2 10 -1.</_>
        <_>
          12 6 1 5 2.</_>
        <_>
          13 11 1 5 2.</_></rects>
      <tilted>0</tilted></_>
    <_>
      <rects>
        <_>
          12 19 1 4 -1.</_>
        <_>
          12 21 1 2 2.</_></rects>
      <tilted>0</tilted></_>
    <_>
      <rects>
        <_>
          19 21 3 1 -1.</_>
        <_>
          20 21 1 1 3.</_></rects>
      <tilted>0</tilted></_>
    <_>
      <rects>
        <_>
          20 22 3 1 -1.</_>
        <_>
          21 22 1 1 3.</_></rects>
      <tilted>0</tilted></_>
    <_>
      <rects>
        <_>
          21 19 2 2 -1.</_>
        <_>
          21 19 1 1 2.</_>
        <_>
          22 20 1 1 2.</_></rects>
      <tilted>0</tilted></_></features></cascade>
</opencv_storage>
